1.532773936113979996e-01
2.913784657575520520e-01
-5.467334555361864634e-01
4.615719977458696555e-01
2.629076603196295325e-01
3.972371769736087743e-01
-4.476425813418238864e-01
-8.007685334096729945e-02
2.843182666911612810e-01
3.687855664293913094e-01
1.278337344348228211e-01
2.078257203695860478e-01
1.187981938557942235e-01
3.285028746939160915e-01
6.989689891074087891e-01
5.258760449133865339e-02
5.134167465217872595e-01
-1.266761616266356694e-01
1.071249620800434482e-02
-5.876002520394551197e-03
3.940887543551887529e-01
2.214205507942934026e-01
3.129654931899505943e-02
4.634527142808801958e-01
-5.573407477771162577e-02
4.507047274798897663e-01
-2.711783643736953575e-01
-2.573607131433519601e-01
3.322248938663647233e-01
-3.734185297553235250e-01
3.068597628710465486e-01
-3.828778419801998623e-01
-3.911829789303408189e-01
1.135906420691432800e-01
-4.960349867242895283e-01
3.129870583225821679e-01
5.935043390228310622e-01
-4.273646286898595270e-01
5.350681705844912983e-01
-7.615422864640461476e-02
4.287025488310256538e-01
-3.719527370048058001e-01
-1.108474032687024879e-01
2.434508303301698984e-01
-5.615543370909384935e-01
2.069409819889480029e-01
2.963115591314955943e-01
-3.820115738900604213e-02
-3.414583669181806558e-01
-2.013453432694609357e-01
-3.228184322656372784e-01
-1.270968161388868123e-03
-2.663180634784984568e-01
-2.261994760313570108e-01
3.445933477912691001e-02
-1.022232688078427432e-01
2.893802742687499041e-01
1.337196672237530304e-01
-3.526645753040589248e-01
-2.110008130372599544e-01
3.153575530844927588e-01
2.762419980918124907e-01
-1.044831823654841507e-01
4.744863535700007962e-01
2.545816098154359830e-01
1.232561229082028142e-01
-5.830923115989912475e-02
-4.093200275691455392e-01
2.717600294624502588e-01
-1.621393087977962277e-01
4.297788804881101377e-01
-4.995649345603859204e-01
7.076911373439107589e-01
-2.956160211104734425e-02
-4.584167782026354332e-01
-4.453225832256946931e-02
5.680920847756847358e-01
-1.648435356902340221e-01
2.525502509679595220e-01
-1.934020043769850428e-01
3.541451063750753470e-01
4.381640227595635650e-01
-1.734014942416595706e-01
-2.080421358414621114e-01
-5.584347816930815833e-01
-1.977285472603431404e-01
1.415654633479735136e-01
-2.691777110967791820e-01
1.521368423301914241e-01
-1.929605496956467714e-01
-4.138292386055695826e-01
3.928184104257167464e-01
-2.520111506416650160e-01
2.128579445453173125e-01
-4.066283178984902436e-01
3.885473656190845393e-01
4.401796486561297961e-01
4.512458597063627175e-01
-1.882273769772364325e-01
-1.144208024845620314e-01
9.044368564372973207e-02
2.705797657243831922e-01
-3.831510698623576960e-01
-4.196066388898506694e-01
8.117512686745698147e-02
-4.141446238329432594e-01
-1.840178761125416951e-01
-2.302767354254932342e-02
-4.105708309830353731e-01
-4.058866049966772249e-01
2.917215114881519522e-01
-8.860462276567007689e-02
2.081855351026663803e-01
-4.865925474891384939e-01
1.075427860923120621e-01
-1.121429635062091562e-01
-3.924948474589653458e-01
3.624461029126677114e-01
3.968223379625525626e-01
2.785054909506591847e-01
8.268374063498568072e-02
-5.987854541413929477e-01
3.595665868457117303e-02
-3.778148395474097421e-01
2.223230610026528248e-02
-4.056858131859574224e-01
-2.875250804763204715e-01
-2.052436577392896533e-01
-3.537907023404673890e-01
-5.237143191480602561e-02
5.203748000909379501e-01
-5.133298975198358205e-01
-2.708249012865397432e-01
-5.245146910770229765e-01
9.726030362201673607e-02
1.704297032715162141e-01
-7.025225989967820439e-02
-2.509626323085590860e-01
8.309290919711000145e-02
-3.827159996261356723e-01
2.587389293401520241e-01
-1.789276893413007663e-01
-8.200657567788967317e-02
-2.725305952426531064e-01
4.795253219619276946e-02
-2.705341023959000890e-01
2.059665794183901111e-01
2.304480927305884441e-01
4.203076368671865293e-01
-2.020029842876289172e-01
2.875192008800769861e-01
2.756656340100217539e-01
1.672372784395999012e-01
-4.089968920959551335e-01
-3.985311095355150712e-01
-2.662361079654168572e-01
-3.414571933070676968e-01
3.054163128173985678e-02
-1.898997436954372175e-01
-1.169319393100314158e-01
4.444906853888516696e-02
-2.933275211303054131e-01
-1.302843959146506025e-02
-1.620546499991334655e-01
-1.335111627617239505e-01
-1.220624497438342199e-01
-1.344407735128837766e-01
-2.314350370391351774e-01
-3.401187653682966605e-01
2.961757425821906833e-02
-1.613882624691825862e-01
-2.777595874621184846e-01
-2.456918938962109056e-02
1.941459238289457157e-01
1.249729897452102195e-01
-9.251138376262792173e-02
6.668799511837894545e-02
-2.802448051433774345e-02
2.067899805557271153e-01
-1.882449826828500872e-01
8.481525459075710260e-02
-4.829713505799538842e-01
3.794287440199884953e-01
-1.921150095442502592e-01
4.383393011516826254e-01
1.253181985272751320e-01
-5.450751344068189841e-01
3.495816930610146644e-01
-5.031692039881057177e-01
-1.557613780350607657e-01
-4.888169507151285398e-01
5.653903084961729025e-02
3.645407301261850419e-01
-1.859769054316651737e-01
1.471464077985424890e-01
-7.785642091725686678e-03
2.980176825217423775e-01
-3.327019483261816624e-01
3.575733454446199389e-01
1.685952759354218677e-01
-2.471451984093195609e-01
-2.959080792517771452e-01
-1.152804167205808417e-01
