8.925669743767321307e-02
2.315340161062152124e-01
-5.595725098578542278e-01
3.044543853310290316e-01
9.078731833704570264e-02
5.091841988332871383e-01
-2.454846682501308219e-01
-3.414871548922291944e-01
5.349197792548823216e-01
4.227673768903471574e-01
1.772645374909567750e-01
3.760079808638340237e-01
4.927164257636482830e-02
3.005258762388685057e-01
6.856749098488735816e-01
-4.419844416492619416e-02
7.115663032243881858e-01
-2.569824033653334561e-01
-1.395042558469780994e-02
-1.731429234179145404e-01
3.229678821895179408e-01
2.323980925738725889e-01
1.486026469396172500e-01
4.459743041098592764e-01
-3.078935793617750272e-01
3.175142108729644419e-01
-3.135613959035263854e-01
-3.146356381429983862e-01
1.060390718584143382e-01
-3.478836130583625175e-01
3.807564282273910861e-01
-2.707586738242388491e-01
-3.461314420303779893e-01
2.194099815229183237e-01
-4.821865683202506969e-01
1.962787680178886274e-01
6.993308945845906344e-01
-4.185550780608160992e-01
4.943765639604790763e-01
-1.681840121813720779e-01
4.739587447947331000e-01
-3.502351023790218898e-01
-9.677579673591781007e-02
4.415586456724812647e-01
-6.034467440034338992e-01
2.993672356301980697e-01
2.075656434514332183e-01
-9.622286758687122188e-02
-1.579100304962939849e-01
-2.661699496573366464e-01
-1.996309666567199215e-01
3.348726704856998942e-02
-3.802293597776457701e-01
-5.213566849225140798e-01
-1.622445008278501632e-01
-6.673443985784273391e-02
6.364686478628840682e-02
-3.969560370693998863e-02
-3.631225327462603847e-01
-1.738614299122389073e-01
3.140554930978763370e-01
4.323967027781588923e-01
-1.738137279057202222e-01
6.424407003635353997e-01
1.700054016465927242e-01
3.510060359053553403e-01
9.492815462675245272e-03
-3.983364075389595471e-01
3.136678061988376620e-01
-2.309634943908603077e-01
2.712833702133963798e-01
-5.787702216122759813e-01
1.251959923177702771e+00
5.126346634937452296e-02
-3.173842770340369324e-01
1.438628266445562097e-02
5.288961241426343163e-01
-1.610215450589309871e-01
2.041992934026121420e-01
-3.078147267682790900e-01
2.019557250779419610e-01
6.524138208771456116e-01
-2.952487372997391613e-01
-1.035542432809484492e-01
-4.995131590416213574e-01
-9.361130697030997649e-02
1.305543779911061131e-01
-3.789220077795446562e-01
7.231592185903264192e-02
-2.735918895599902534e-01
-3.854379867162029960e-01
1.715418155470433415e-01
-3.302809795454597630e-01
1.180392311285850399e-01
-3.437217505985050159e-01
1.980673745931848806e-01
4.719284668427859986e-01
2.901392195395766094e-01
-2.358093835296975194e-01
-1.044504587718990268e-01
-4.090390590644017721e-02
6.493662939463565875e-01
-4.801879958729876052e-01
-2.738524952632577780e-01
3.446130219202876710e-02
-4.292239048843489169e-01
-2.043680198898919220e-01
-6.759346759978401842e-02
-4.767814816306930048e-01
-2.876753726476113937e-01
1.661201296953140616e-01
-1.394272754055897179e-01
6.599856404022402812e-01
-3.617624502047063206e-01
3.859742292441758343e-02
-3.268854889029810390e-02
-3.643858548130266550e-01
4.370350761128344308e-01
2.603567559433466738e-01
3.362049313102450920e-01
-1.703063154949667826e-02
-6.879471682654407783e-01
2.380512414989278680e-01
-4.323007402358514106e-01
2.706288912969028182e-01
-4.484518155257739003e-01
-2.816579490428438581e-01
-1.560548821726787661e-01
-3.140854428816407529e-01
-2.787781737748342911e-02
1.931797384382274718e-01
-4.390140043931451408e-01
-2.170207970088825489e-01
-4.728164471796183488e-01
1.206262040140602398e-01
9.114063584714103897e-03
6.718246469247220708e-03
-2.632793309148157013e-01
-2.451052543297936592e-02
-3.165808954326468361e-01
3.139570457749899512e-01
-3.356006671989023027e-01
-2.106784445833574937e-01
-4.160324020675696954e-01
1.368061500424947452e-01
-3.042795824410893801e-01
3.267399315536119175e-01
2.497400423962572169e-01
3.565611490630542502e-01
-1.275513493315211522e-01
3.337094728108577213e-01
3.083546200388933567e-01
2.300918811811335785e-01
-4.884969329249095882e-01
-2.625400510074092919e-01
-4.068094943555521925e-01
-3.481980252337998349e-01
-5.852406327194427382e-02
-3.110479697572013924e-01
-2.066371811135136183e-01
1.877830900354790777e-01
-4.081189112772262706e-01
-3.571258358775399044e-02
-1.580800583916047997e-01
-1.480348157399708486e-01
-1.715602999151076835e-01
-5.520860767690766169e-02
-3.049900399405648388e-01
-2.971009522705708727e-01
-1.690465608385866014e-01
1.525107126186268647e-01
-3.977767690871893969e-01
7.077802672901872816e-02
4.129259353194583010e-02
2.207563659462029593e-01
-2.299584849208171494e-02
-5.939309385296058508e-02
-1.074233053263519144e-01
2.300224433694932069e-01
-1.653187837267514060e-01
2.647533249313034978e-02
-4.445500354956248845e-01
4.526876473480305196e-01
-9.032446716096463601e-02
7.218148356980875757e-01
-7.192287770211150399e-02
-5.928601182688353344e-01
6.168840278568583635e-01
-5.872030171038824520e-01
-2.691747021337771439e-01
-3.976775357122178667e-01
1.213082329470190068e-02
4.898588084704096901e-01
-3.287876942649731737e-01
2.847835560641883701e-01
4.865384988812688355e-02
3.318131401811738046e-01
-3.886172102831516040e-01
5.857217316974612231e-01
-1.419494967528524276e-01
-6.808258010671036642e-02
-3.114644383685332141e-01
-4.276831017528343049e-01
