-4.630999604471361386e-02
1.275121057081743114e-01
-5.355928218122902873e-01
1.523213561816392503e-01
-6.403079177610368489e-02
1.192604591268009578e-01
-1.931227125685743562e-01
-2.543748095289899980e-01
2.912971378416729373e-01
7.090846493030046951e-03
4.111750423358818685e-01
3.639795628626538715e-01
3.260812866299602764e-01
2.529498778317231245e-01
6.783280921352680126e-01
3.243262202870037525e-01
4.837529579008782443e-01
-1.700282997266300555e-01
-2.284686458929187716e-02
-7.471545840224416701e-02
4.239111236921024317e-01
4.080628147545478090e-01
9.602318102233035890e-02
3.427480272684589324e-01
-1.632219278717105537e-01
4.203803453967482340e-01
-4.493184254535248501e-01
-2.401967968623600902e-01
-3.264759541576081059e-01
-3.082591888489581988e-01
1.821217842412270471e-01
-5.487431623058428576e-01
-5.209201024840883765e-01
2.031773563605679955e-01
-4.870528963853033022e-01
2.740767703522893339e-01
6.197165093506579181e-01
-6.059560036950800699e-01
6.954021764237546810e-01
4.085091584593786851e-01
4.946696434416560928e-01
-3.171724964728518947e-01
-1.429032770006534447e-01
7.830209260369273006e-01
-4.689921139852221144e-01
5.229764616464621652e-01
5.177927573955657392e-01
2.379526255611353475e-02
-2.574739811331277495e-01
2.577378549293448534e-02
-3.029615690847077894e-02
-1.132399483345490482e-01
-3.344322827587483671e-01
-1.896098473455307132e-01
1.872929360093328888e-01
-1.934613953167753711e-02
4.876383613846300702e-01
-2.070043467054484276e-01
-1.834693203801866512e-01
-2.827835399673583883e-01
2.710030623170406883e-01
1.096016204703508662e-01
-3.305354701838053022e-01
4.995382612668315403e-01
5.536969634731876699e-02
-1.881790026457824394e-01
-1.961071868983938482e-01
-4.920049894812889013e-01
4.237695926686747550e-01
-1.560073622065139831e-01
1.424864840219108308e-01
-6.546085282450195830e-01
8.616753640045581308e-01
-5.400807864659254443e-02
-4.476207181741169716e-01
-1.966801367478133444e-01
2.543765530725062285e-01
-2.497974200400208400e-01
3.591899476389199819e-01
-4.578729404709572792e-01
2.123752583377752357e-01
2.323098600782184386e-01
1.044818646016324598e-01
-6.241291146293264508e-02
-5.953444114426790224e-01
-3.236531113935489645e-01
3.089438590879493574e-01
-4.923265238625313955e-01
3.480003884322889207e-01
3.897056423692490251e-02
-3.406393781610890792e-01
1.205536062869214248e-01
-1.689989307441759347e-01
1.135595509929757108e-01
-4.916452878398535065e-01
1.109354391798156453e-01
8.843299652771304808e-01
6.491817256440266526e-01
-4.174664852832559170e-01
-7.031541343302706581e-02
-1.786158744045748814e-01
4.577825070497582721e-02
-6.134099626530068461e-01
-4.239713884477285810e-01
-2.396763039503870332e-02
-4.145717216646698788e-01
-1.767687549649361589e-01
-1.244591716782805502e-01
-3.754876510998725325e-01
-2.260537097901194337e-01
4.455759994404031032e-01
-2.367085490821490001e-01
9.946478181491617832e-02
-5.133124114986324926e-01
9.410056210586342784e-02
4.843621761336060205e-02
-3.412005244325221343e-01
5.946268976243475057e-01
3.850360564591596146e-01
2.099119506406144364e-01
-4.828940961314123065e-02
-5.049288415377608530e-01
4.429749222167977396e-01
-4.318439597137885277e-01
1.532457994037928449e-02
-3.310864456106668574e-01
-3.026441235279662134e-01
-1.523306586737275814e-01
-6.101360797905468480e-01
1.080251597504238437e-01
4.057017479779005953e-01
-7.009317297522699164e-01
-4.886258003006764272e-01
-4.942902754615243754e-01
-8.966319967117100664e-02
2.322987943789777687e-01
-2.452734931803347007e-01
-5.560519678304079449e-02
-2.118964716249965574e-01
-4.672657438182286072e-01
2.120358433688302735e-01
-3.950564552050791489e-01
-1.038825060962616093e-01
-1.152142565132706770e-01
1.395531267401237466e-02
-1.172993279467576810e-01
3.627766758683504400e-01
3.505037364458125637e-01
-9.045152910409262614e-02
-1.741938980456907426e-01
1.406672342324718702e-02
2.097523096165528345e-01
8.395673863894045907e-02
-3.486623753306374862e-01
-2.526884650796659693e-01
-2.992205366853378790e-01
-2.734902718391296617e-01
-6.380758349469024815e-02
2.473017354795475561e-02
-4.244318178912408479e-01
-7.466045746101415692e-02
-2.710658110195207082e-01
-1.820922231356773141e-02
-2.938873173611559197e-01
1.223868815374020563e-01
-4.706132453941798688e-01
-2.494999744280386733e-01
-1.252713342229325733e-01
-3.262651865084131853e-01
-2.190795569080123129e-01
-1.241792169513282335e-01
1.801232555936856106e-01
1.291282854772695388e-01
3.055532474243459751e-01
-1.474117376724675896e-02
2.863741388745394967e-01
-2.735741010425512057e-02
-2.303720609822348109e-01
9.312927466566080226e-02
-3.243581548507731838e-01
-4.889937026823303057e-02
-3.585491228111129525e-01
2.716413845974651187e-01
-9.170959568552392027e-02
1.121983225022337161e+00
-1.041984233242866376e-01
-4.927059018042738159e-01
-7.766444507701013300e-02
-5.314814560516119002e-01
-1.688251673865900915e-01
-3.923153454275266072e-01
1.046408873989849858e-01
5.053171633172199861e-01
-4.362492769409957727e-02
-1.673040241674688539e-02
-1.066726142121221244e-01
5.369860795375890339e-01
-1.832943443383545090e-01
3.127982311697434237e-01
-3.822889274505161805e-02
3.615122760691097154e-04
-1.869248199026464496e-02
-1.120847721217782533e-01
