3.462527692317962646e-01
1.144096776843070984e-01
-5.074346065521240234e-01
3.647455275058746338e-01
1.014018729329109192e-01
2.317925840616226196e-01
-3.042462468147277832e-01
-1.257119327783584595e-01
2.885295450687408447e-01
3.171622157096862793e-01
2.321110069751739502e-01
2.927025258541107178e-01
1.895167827606201172e-01
2.125603854656219482e-01
5.454163551330566406e-01
1.215167120099067688e-01
3.463709950447082520e-01
-1.343475878238677979e-01
7.734618335962295532e-02
2.876104088500142097e-03
3.631562292575836182e-01
1.138144433498382568e-01
2.692648768424987793e-01
4.306304454803466797e-01
-4.942286387085914612e-02
3.027509152889251709e-01
-2.414074689149856567e-01
-3.385276496410369873e-01
1.010488644242286682e-01
-3.660951256752014160e-01
3.522645235061645508e-01
-3.678364157676696777e-01
-3.930490911006927490e-01
2.946203052997589111e-01
-5.047584772109985352e-01
1.684126555919647217e-01
5.887712836265563965e-01
-4.028866589069366455e-01
4.312764406204223633e-01
3.690736368298530579e-02
3.912674188613891602e-01
-3.471622467041015625e-01
-1.699789613485336304e-01
4.311251640319824219e-01
-5.674757361412048340e-01
2.695456743240356445e-01
3.986834585666656494e-01
-1.101147308945655823e-01
-1.657004207372665405e-01
-1.587578356266021729e-01
-1.723584085702896118e-01
-5.916976928710937500e-02
-1.421072632074356079e-01
-1.803154349327087402e-01
1.246949806809425354e-01
-9.698387980461120605e-02
2.788150608539581299e-01
-2.995283715426921844e-02
-2.656454145908355713e-01
-1.553469747304916382e-01
4.416141510009765625e-01
3.554796576499938965e-01
-1.667361706495285034e-01
4.564537107944488525e-01
2.132835686206817627e-01
1.093086600303649902e-01
-8.016993105411529541e-02
-3.820701241493225098e-01
3.009661138057708740e-01
-4.738045856356620789e-02
2.167987674474716187e-01
-5.321750044822692871e-01
5.760062336921691895e-01
-6.662774085998535156e-02
-4.228895604610443115e-01
-1.188118979334831238e-01
2.179960459470748901e-01
-1.523691862821578979e-01
4.098153412342071533e-01
-2.585872709751129150e-01
2.599645555019378662e-01
3.900721967220306396e-01
3.309623152017593384e-02
-1.611966341733932495e-01
-5.254638195037841797e-01
-2.718293368816375732e-01
1.696837246417999268e-01
-3.286015093326568604e-01
2.415814250707626343e-01
-1.211049109697341919e-01
-4.093928635120391846e-01
2.258183509111404419e-01
-1.438423246145248413e-01
1.965994834899902344e-01
-4.582463204860687256e-01
2.963916361331939697e-01
5.418572425842285156e-01
3.529605865478515625e-01
-1.156231090426445007e-01
-1.099952235817909241e-01
2.273072674870491028e-02
1.177740618586540222e-01
-4.410116970539093018e-01
-4.633072912693023682e-01
2.133196294307708740e-01
-4.121804535388946533e-01
-2.158472239971160889e-01
3.607546212151646614e-03
-3.965972065925598145e-01
-3.387691676616668701e-01
3.412905633449554443e-01
-1.302285194396972656e-01
3.279508352279663086e-01
-4.683464169502258301e-01
7.517465949058532715e-02
-1.349904239177703857e-01
-3.707498311996459961e-01
4.000432193279266357e-01
3.822680413722991943e-01
2.674469053745269775e-01
2.420376837253570557e-01
-5.612099766731262207e-01
7.120976597070693970e-02
-4.560655355453491211e-01
-6.272384524345397949e-02
-4.115977883338928223e-01
-2.740105986595153809e-01
-2.703529894351959229e-01
-4.781991541385650635e-01
2.850932814180850983e-02
3.697209060192108154e-01
-4.826920926570892334e-01
-2.853294014930725098e-01
-4.874075651168823242e-01
9.995254129171371460e-02
1.267811357975006104e-01
-7.383277267217636108e-02
-2.113281339406967163e-01
7.529376447200775146e-02
-4.443015754222869873e-01
2.218595445156097412e-01
-2.743213474750518799e-01
4.309998825192451477e-02
-2.387015074491500854e-01
1.461255401372909546e-01
-1.509363800287246704e-01
2.591015994548797607e-01
3.014269471168518066e-01
3.953519165515899658e-01
-1.062614694237709045e-01
2.487244307994842529e-01
3.482664525508880615e-01
9.386055171489715576e-02
-4.001874923706054688e-01
-2.927569746971130371e-01
-3.216825425624847412e-01
-3.380264341831207275e-01
6.987357046455144882e-03
-1.224243342876434326e-01
-2.330081760883331299e-01
-7.567811757326126099e-02
-2.135794013738632202e-01
-1.217937916517257690e-01
-1.063831895589828491e-01
-1.175662577152252197e-01
-1.323806196451187134e-01
-1.295911967754364014e-01
-1.784459054470062256e-01
-2.489610761404037476e-01
-9.491549432277679443e-02
-2.008847150136716664e-05
2.188794860558118671e-05
-4.601159844241919927e-07
7.141558080911636353e-02
7.279136031866073608e-02
8.863998204469680786e-02
9.167741984128952026e-03
-1.210926100611686707e-02
2.780712246894836426e-01
-2.096896618604660034e-01
3.281671702861785889e-01
-4.682517349720001221e-01
3.852309584617614746e-01
-1.824201792478561401e-01
6.018114686012268066e-01
1.287664324045181274e-01
-4.799187183380126953e-01
3.749680519104003906e-01
-4.668878018856048584e-01
-8.550518006086349487e-02
-4.659096896648406982e-01
-1.162848398089408875e-01
3.632074594497680664e-01
-1.639128625392913818e-01
3.340464532375335693e-01
-1.570228338241577148e-01
3.578371703624725342e-01
-3.998357057571411133e-01
4.874022006988525391e-01
8.452204614877700806e-02
-7.362324140558484942e-06
2.058641257463023067e-05
-1.877927752502728254e-05
